<?xml version="1.0"?>
<opencv_storage>
<opencv_ml_svm>
  <format>3</format>
  <svmType>C_SVC</svmType>
  <kernel>
    <type>RBF</type>
    <gamma>20.</gamma></kernel>
  <C>7.</C>
  <term_criteria><epsilon>9.9999999999999995e-007</epsilon>
    <iterations>1000</iterations></term_criteria>
  <var_count>8</var_count>
  <class_count>2</class_count>
  <class_labels type_id="opencv-matrix">
    <rows>2</rows>
    <cols>1</cols>
    <dt>i</dt>
    <data>
      -1 1</data></class_labels>
  <sv_total>69</sv_total>
  <support_vectors>
    <_>
      928. 485. 129. 1. 27. 196. 198. 38.</_>
    <_>
      849. 660. 115. 1. 18. 266. 193. 15.</_>
    <_>
      1028. 957. 356. 1. 15. 366. 224. 2.</_>
    <_>
      1138. 1046. 328. 1. 11. 166. 243. 2.</_>
    <_>
      971. 898. 104. 1. 8. 351. 157. 0.</_>
    <_>
      1164. 1136. 95. 1. 22. 186. 187. 32.</_>
    <_>
      1140. 859. 150. 1. 18. 363. 180. 8.</_>
    <_>
      1196. 1045. 260. 1. 13. 170. 218. 2.</_>
    <_>
      1175. 1017. 194. 1. 10. 140. 217. 0.</_>
    <_>
      830. 815. 135. 1. 12. 320. 208. 0.</_>
    <_>
      1113. 962. 230. 1. 8. 273. 168. 46.</_>
    <_>
      1155. 637. 242. 1. 14. 154. 298. 0.</_>
    <_>
      1222. 611. 97. 1. 22. 372. 177. 8.</_>
    <_>
      1197. 1028. 96. 1. 16. 167. 177. 0.</_>
    <_>
      1121. 606. 110. 1. 18. 172. 321. 0.</_>
    <_>
      800. 600. 125. 1. 31. 404. 145. 40.</_>
    <_>
      1158. 804. 95. 1. 20. 426. 153. 0.</_>
    <_>
      1031. 825. 67. 1. 12. 327. 121. 7.</_>
    <_>
      1083. 888. 51. 1. 10. 368. 112. 1.</_>
    <_>
      1069. 791. 62. 1. 14. 374. 97. 0.</_>
    <_>
      1028. 957. 138. 1. 8. 181. 152. 18.</_>
    <_>
      858. 628. 157. 1. 30. 224. 175. 39.</_>
    <_>
      846. 641. 139. 1. 31. 164. 169. 41.</_>
    <_>
      886. 620. 100. 1. 28. 97. 190. 2.</_>
    <_>
      922. 577. 117. 1. 35. 479. 149. 39.</_>
    <_>
      1068. 917. 148. 1. 12. 371. 217. 9.</_>
    <_>
      1219. 671. 301. 1. 11. 62. 239. 4.</_>
    <_>
      1000. 878. 215. 1. 9. 331. 196. 2.</_>
    <_>
      814. 777. 150. 1. 32. 215. 168. 40.</_>
    <_>
      940. 880. 143. 1. 13. 328. 260. 6.</_>
    <_>
      1013. 694. 92. 1. 18. 192. 161. 30.</_>
    <_>
      1187. 984. 338. 1. 10. 150. 259. 2.</_>
    <_>
      1129. 919. 323. 1. 7. 143. 241. 1.</_>
    <_>
      956. 797. 208. 1. 14. 358. 169. 40.</_>
    <_>
      1260. 768. 311. 1. 16. 365. 188. 36.</_>
    <_>
      1104. 865. 195. 1. 8. 339. 347. 48.</_>
    <_>
      1069. 791. 232. 1. 6. 189. 193. 16.</_>
    <_>
      1114. 918. 208. 1. 7. 309. 193. 15.</_>
    <_>
      1107. 1092. 165. 1. 10. 154. 212. 1.</_>
    <_>
      1057. 985. 188. 1. 11. 164. 196. 0.</_>
    <_>
      1151. 893. 288. 1. 12. 163. 226. 0.</_>
    <_>
      952. 936. 186. 1. 9. 158. 378. 0.</_>
    <_>
      1093. 746. 227. 1. 5. 76. 186. 44.</_>
    <_>
      1146. 1080. 265. 1. 9. 178. 211. 9.</_>
    <_>
      914. 857. 200. 1. 24. 187. 194. 43.</_>
    <_>
      971. 957. 97. 1. 14. 167. 154. 24.</_>
    <_>
      1157. 742. 91. 1. 16. 354. 276. 3.</_>
    <_>
      966. 883. 196. 1. 5. 301. 399. 40.</_>
    <_>
      883. 857. 180. 1. 20. 207. 165. 40.</_>
    <_>
      944. 763. 244. 1. 12. 27. 342. 3.</_>
    <_>
      1125. 708. 86. 1. 16. 366. 252. 39.</_>
    <_>
      1111. 708. 86. 1. 16. 362. 238. 39.</_>
    <_>
      1081. 702. 89. 1. 17. 372. 234. 39.</_>
    <_>
      1089. 791. 81. 1. 11. 340. 147. 37.</_>
    <_>
      1138. 680. 98. 1. 14. 113. 174. 39.</_>
    <_>
      914. 800. 128. 1. 19. 339. 320. 39.</_>
    <_>
      1125. 597. 148. 1. 26. 107. 170. 38.</_>
    <_>
      1147. 794. 72. 1. 13. 346. 104. 0.</_>
    <_>
      1162. 972. 83. 1. 17. 177. 199. 0.</_>
    <_>
      1041. 808. 56. 1. 14. 373. 110. 38.</_>
    <_>
      1088. 750. 83. 1. 13. 353. 115. 16.</_>
    <_>
      1045. 893. 72. 1. 13. 151. 135. 32.</_>
    <_>
      1440. 30. 140. 36. 20. 44. 210. 471.</_>
    <_>
      1338. 0. 310. 91. 18. 32. 462. 42.</_>
    <_>
      1252. 54. 210. 19. 23. 38. 337. 21.</_>
    <_>
      1224. 17. 214. 35. 20. 11. 379. 83.</_>
    <_>
      1352. 38. 205. 28. 25. 40. 329. 28.</_>
    <_>
      1246. 25. 320. 32. 27. 22. 457. 132.</_>
    <_>
      1508. 0. 164. 86. 16. 18. 238. 49.</_></support_vectors>
  <decision_functions>
    <_>
      <sv_count>69</sv_count>
      <rho>-7.9710144927536231e-001</rho>
      <alpha>
        2.0289897918701172e-001 2.0289897918701172e-001
        2.0289897918701172e-001 2.0289897918701172e-001
        2.0289897918701172e-001 2.0289897918701172e-001
        2.0289897918701172e-001 2.0289897918701172e-001
        2.0289897918701172e-001 2.0289897918701172e-001
        2.0289897918701172e-001 2.0289897918701172e-001
        2.0289897918701172e-001 2.0289897918701172e-001
        2.0289897918701172e-001 2.0289897918701172e-001
        2.0289897918701172e-001 2.0289897918701172e-001
        2.0289897918701172e-001 2.0289802551269531e-001
        2.0289802551269531e-001 2.0289802551269531e-001
        2.0289802551269531e-001 2.0289802551269531e-001
        2.0289802551269531e-001 2.0289897918701172e-001
        2.0289897918701172e-001 2.0289897918701172e-001
        2.0289897918701172e-001 2.0289897918701172e-001
        2.0289897918701172e-001 2.0289897918701172e-001
        2.0289897918701172e-001 2.0289897918701172e-001
        2.0289897918701172e-001 2.0289897918701172e-001
        2.0289897918701172e-001 2.0289897918701172e-001
        2.0289897918701172e-001 2.0289802551269531e-001
        2.0289802551269531e-001 2.0289802551269531e-001
        2.0289802551269531e-001 2.0289802551269531e-001
        2.0289802551269531e-001 2.0289802551269531e-001
        2.0289802551269531e-001 2.0289802551269531e-001
        2.0289802551269531e-001 2.0289802551269531e-001
        2.0289802551269531e-001 2.0289802551269531e-001
        2.0289802551269531e-001 2.0289802551269531e-001
        2.0289802551269531e-001 2.0289802551269531e-001
        2.0289802551269531e-001 2.0289802551269531e-001
        2.0289802551269531e-001 2.0289802551269531e-001
        2.0289802551269531e-001 2.0289802551269531e-001
        -1.7971019744873047e+000 -1.7971019744873047e+000
        -1.7971010208129883e+000 -1.7971010208129883e+000
        -1.7971010208129883e+000 -1.7971010208129883e+000
        -1.7971010208129883e+000</alpha></_></decision_functions></opencv_ml_svm>
</opencv_storage>
